digraph Tree {
node [shape=box, style="filled", color="black"] ;
0 [label="Sex_male <= 0.5\ngini = 0.473\nsamples = 891\nvalue = [549, 342]", fillcolor="#f5cfb4"] ;
1 [label="PClass_3 <= 0.5\ngini = 0.383\nsamples = 314\nvalue = [81, 233]", fillcolor="#7ebfee"] ;
0 -> 1 [labeldistance=2.5, labelangle=45, headlabel="True"] ;
2 [label="Age <= 2.5\ngini = 0.1\nsamples = 170\nvalue = [9, 161]", fillcolor="#44a2e6"] ;
1 -> 2 ;
3 [label="Parch_2 <= 0.5\ngini = 0.5\nsamples = 2\nvalue = [1, 1]", fillcolor="#ffffff"] ;
2 -> 3 ;
4 [label="gini = 0.0\nsamples = 1\nvalue = [0, 1]", fillcolor="#399de5"] ;
3 -> 4 ;
5 [label="gini = 0.0\nsamples = 1\nvalue = [1, 0]", fillcolor="#e58139"] ;
3 -> 5 ;
6 [label="Fare <= 28.856\ngini = 0.091\nsamples = 168\nvalue = [8, 160]", fillcolor="#43a2e6"] ;
2 -> 6 ;
7 [label="Fare <= 28.231\ngini = 0.182\nsamples = 69\nvalue = [7, 62]", fillcolor="#4fa8e8"] ;
6 -> 7 ;
8 [label="Age <= 56.0\ngini = 0.161\nsamples = 68\nvalue = [6, 62]", fillcolor="#4ca6e8"] ;
7 -> 8 ;
9 [label="SibSp_1 <= 0.5\ngini = 0.14\nsamples = 66\nvalue = [5, 61]", fillcolor="#49a5e7"] ;
8 -> 9 ;
10 [label="Fare <= 13.25\ngini = 0.08\nsamples = 48\nvalue = [2, 46]", fillcolor="#42a1e6"] ;
9 -> 10 ;
11 [label="Fare <= 12.825\ngini = 0.147\nsamples = 25\nvalue = [2, 23]", fillcolor="#4aa6e7"] ;
10 -> 11 ;
12 [label="gini = 0.0\nsamples = 11\nvalue = [0, 11]", fillcolor="#399de5"] ;
11 -> 12 ;
13 [label="Age <= 26.0\ngini = 0.245\nsamples = 14\nvalue = [2, 12]", fillcolor="#5aade9"] ;
11 -> 13 ;
14 [label="Age <= 21.0\ngini = 0.444\nsamples = 3\nvalue = [1, 2]", fillcolor="#9ccef2"] ;
13 -> 14 ;
15 [label="gini = 0.0\nsamples = 1\nvalue = [0, 1]", fillcolor="#399de5"] ;
14 -> 15 ;
16 [label="gini = 0.5\nsamples = 2\nvalue = [1, 1]", fillcolor="#ffffff"] ;
14 -> 16 ;
17 [label="Age <= 37.0\ngini = 0.165\nsamples = 11\nvalue = [1, 10]", fillcolor="#4da7e8"] ;
13 -> 17 ;
18 [label="gini = 0.0\nsamples = 8\nvalue = [0, 8]", fillcolor="#399de5"] ;
17 -> 18 ;
19 [label="Age <= 39.0\ngini = 0.444\nsamples = 3\nvalue = [1, 2]", fillcolor="#9ccef2"] ;
17 -> 19 ;
20 [label="gini = 0.0\nsamples = 1\nvalue = [1, 0]", fillcolor="#e58139"] ;
19 -> 20 ;
21 [label="gini = 0.0\nsamples = 2\nvalue = [0, 2]", fillcolor="#399de5"] ;
19 -> 21 ;
22 [label="gini = 0.0\nsamples = 23\nvalue = [0, 23]", fillcolor="#399de5"] ;
10 -> 22 ;
23 [label="Fare <= 22.0\ngini = 0.278\nsamples = 18\nvalue = [3, 15]", fillcolor="#61b1ea"] ;
9 -> 23 ;
24 [label="Embarked_S <= 0.5\ngini = 0.5\nsamples = 2\nvalue = [1, 1]", fillcolor="#ffffff"] ;
23 -> 24 ;
25 [label="gini = 0.0\nsamples = 1\nvalue = [0, 1]", fillcolor="#399de5"] ;
24 -> 25 ;
26 [label="gini = 0.0\nsamples = 1\nvalue = [1, 0]", fillcolor="#e58139"] ;
24 -> 26 ;
27 [label="Age <= 43.0\ngini = 0.219\nsamples = 16\nvalue = [2, 14]", fillcolor="#55abe9"] ;
23 -> 27 ;
28 [label="Parch_1 <= 0.5\ngini = 0.142\nsamples = 13\nvalue = [1, 12]", fillcolor="#49a5e7"] ;
27 -> 28 ;
29 [label="gini = 0.0\nsamples = 10\nvalue = [0, 10]", fillcolor="#399de5"] ;
28 -> 29 ;
30 [label="Fare <= 24.5\ngini = 0.444\nsamples = 3\nvalue = [1, 2]", fillcolor="#9ccef2"] ;
28 -> 30 ;
31 [label="gini = 0.0\nsamples = 1\nvalue = [0, 1]", fillcolor="#399de5"] ;
30 -> 31 ;
32 [label="Age <= 28.5\ngini = 0.5\nsamples = 2\nvalue = [1, 1]", fillcolor="#ffffff"] ;
30 -> 32 ;
33 [label="gini = 0.0\nsamples = 1\nvalue = [1, 0]", fillcolor="#e58139"] ;
32 -> 33 ;
34 [label="gini = 0.0\nsamples = 1\nvalue = [0, 1]", fillcolor="#399de5"] ;
32 -> 34 ;
35 [label="Age <= 44.5\ngini = 0.444\nsamples = 3\nvalue = [1, 2]", fillcolor="#9ccef2"] ;
27 -> 35 ;
36 [label="gini = 0.0\nsamples = 1\nvalue = [1, 0]", fillcolor="#e58139"] ;
35 -> 36 ;
37 [label="gini = 0.0\nsamples = 2\nvalue = [0, 2]", fillcolor="#399de5"] ;
35 -> 37 ;
38 [label="Age <= 57.5\ngini = 0.5\nsamples = 2\nvalue = [1, 1]", fillcolor="#ffffff"] ;
8 -> 38 ;
39 [label="gini = 0.0\nsamples = 1\nvalue = [1, 0]", fillcolor="#e58139"] ;
38 -> 39 ;
40 [label="gini = 0.0\nsamples = 1\nvalue = [0, 1]", fillcolor="#399de5"] ;
38 -> 40 ;
41 [label="gini = 0.0\nsamples = 1\nvalue = [1, 0]", fillcolor="#e58139"] ;
7 -> 41 ;
42 [label="Parch_2 <= 0.5\ngini = 0.02\nsamples = 99\nvalue = [1, 98]", fillcolor="#3b9ee5"] ;
6 -> 42 ;
43 [label="gini = 0.0\nsamples = 84\nvalue = [0, 84]", fillcolor="#399de5"] ;
42 -> 43 ;
44 [label="Age <= 24.5\ngini = 0.124\nsamples = 15\nvalue = [1, 14]", fillcolor="#47a4e7"] ;
42 -> 44 ;
45 [label="gini = 0.0\nsamples = 10\nvalue = [0, 10]", fillcolor="#399de5"] ;
44 -> 45 ;
46 [label="Age <= 28.0\ngini = 0.32\nsamples = 5\nvalue = [1, 4]", fillcolor="#6ab6ec"] ;
44 -> 46 ;
47 [label="gini = 0.0\nsamples = 1\nvalue = [1, 0]", fillcolor="#e58139"] ;
46 -> 47 ;
48 [label="gini = 0.0\nsamples = 4\nvalue = [0, 4]", fillcolor="#399de5"] ;
46 -> 48 ;
49 [label="Fare <= 23.35\ngini = 0.5\nsamples = 144\nvalue = [72, 72]", fillcolor="#ffffff"] ;
1 -> 49 ;
50 [label="Age <= 36.5\ngini = 0.484\nsamples = 117\nvalue = [48, 69]", fillcolor="#c3e1f7"] ;
49 -> 50 ;
51 [label="Embarked_S <= 0.5\ngini = 0.472\nsamples = 110\nvalue = [42, 68]", fillcolor="#b3daf5"] ;
50 -> 51 ;
52 [label="Age <= 29.75\ngini = 0.406\nsamples = 53\nvalue = [15, 38]", fillcolor="#87c4ef"] ;
51 -> 52 ;
53 [label="Fare <= 15.373\ngini = 0.38\nsamples = 51\nvalue = [13, 38]", fillcolor="#7dbfee"] ;
52 -> 53 ;
54 [label="Fare <= 13.935\ngini = 0.439\nsamples = 40\nvalue = [13, 27]", fillcolor="#98ccf2"] ;
53 -> 54 ;
55 [label="Parch_2 <= 0.5\ngini = 0.312\nsamples = 31\nvalue = [6, 25]", fillcolor="#69b5eb"] ;
54 -> 55 ;
56 [label="Fare <= 6.987\ngini = 0.278\nsamples = 30\nvalue = [5, 25]", fillcolor="#61b1ea"] ;
55 -> 56 ;
57 [label="gini = 0.0\nsamples = 1\nvalue = [1, 0]", fillcolor="#e58139"] ;
56 -> 57 ;
58 [label="Age <= 20.0\ngini = 0.238\nsamples = 29\nvalue = [4, 25]", fillcolor="#59ade9"] ;
56 -> 58 ;
59 [label="gini = 0.0\nsamples = 8\nvalue = [0, 8]", fillcolor="#399de5"] ;
58 -> 59 ;
60 [label="Age <= 21.5\ngini = 0.308\nsamples = 21\nvalue = [4, 17]", fillcolor="#68b4eb"] ;
58 -> 60 ;
61 [label="gini = 0.0\nsamples = 1\nvalue = [1, 0]", fillcolor="#e58139"] ;
60 -> 61 ;
62 [label="Fare <= 8.008\ngini = 0.255\nsamples = 20\nvalue = [3, 17]", fillcolor="#5caeea"] ;
60 -> 62 ;
63 [label="Fare <= 7.681\ngini = 0.188\nsamples = 19\nvalue = [2, 17]", fillcolor="#50a9e8"] ;
62 -> 63 ;
64 [label="Fare <= 7.429\ngini = 0.444\nsamples = 3\nvalue = [1, 2]", fillcolor="#9ccef2"] ;
63 -> 64 ;
65 [label="gini = 0.0\nsamples = 2\nvalue = [0, 2]", fillcolor="#399de5"] ;
64 -> 65 ;
66 [label="gini = 0.0\nsamples = 1\nvalue = [1, 0]", fillcolor="#e58139"] ;
64 -> 66 ;
67 [label="Fare <= 7.769\ngini = 0.117\nsamples = 16\nvalue = [1, 15]", fillcolor="#46a4e7"] ;
63 -> 67 ;
68 [label="Fare <= 7.744\ngini = 0.165\nsamples = 11\nvalue = [1, 10]", fillcolor="#4da7e8"] ;
67 -> 68 ;
69 [label="gini = 0.0\nsamples = 2\nvalue = [0, 2]", fillcolor="#399de5"] ;
68 -> 69 ;
70 [label="Age <= 25.0\ngini = 0.198\nsamples = 9\nvalue = [1, 8]", fillcolor="#52a9e8"] ;
68 -> 70 ;
71 [label="gini = 0.0\nsamples = 1\nvalue = [0, 1]", fillcolor="#399de5"] ;
70 -> 71 ;
72 [label="gini = 0.219\nsamples = 8\nvalue = [1, 7]", fillcolor="#55abe9"] ;
70 -> 72 ;
73 [label="gini = 0.0\nsamples = 5\nvalue = [0, 5]", fillcolor="#399de5"] ;
67 -> 73 ;
74 [label="gini = 0.0\nsamples = 1\nvalue = [1, 0]", fillcolor="#e58139"] ;
62 -> 74 ;
75 [label="gini = 0.0\nsamples = 1\nvalue = [1, 0]", fillcolor="#e58139"] ;
55 -> 75 ;
76 [label="Age <= 28.5\ngini = 0.346\nsamples = 9\nvalue = [7, 2]", fillcolor="#eca572"] ;
54 -> 76 ;
77 [label="Age <= 16.0\ngini = 0.219\nsamples = 8\nvalue = [7, 1]", fillcolor="#e99355"] ;
76 -> 77 ;
78 [label="Age <= 14.75\ngini = 0.444\nsamples = 3\nvalue = [2, 1]", fillcolor="#f2c09c"] ;
77 -> 78 ;
79 [label="gini = 0.0\nsamples = 2\nvalue = [2, 0]", fillcolor="#e58139"] ;
78 -> 79 ;
80 [label="gini = 0.0\nsamples = 1\nvalue = [0, 1]", fillcolor="#399de5"] ;
78 -> 80 ;
81 [label="gini = 0.0\nsamples = 5\nvalue = [5, 0]", fillcolor="#e58139"] ;
77 -> 81 ;
82 [label="gini = 0.0\nsamples = 1\nvalue = [0, 1]", fillcolor="#399de5"] ;
76 -> 82 ;
83 [label="gini = 0.0\nsamples = 11\nvalue = [0, 11]", fillcolor="#399de5"] ;
53 -> 83 ;
84 [label="gini = 0.0\nsamples = 2\nvalue = [2, 0]", fillcolor="#e58139"] ;
52 -> 84 ;
85 [label="Parch_2 <= 0.5\ngini = 0.499\nsamples = 57\nvalue = [27, 30]", fillcolor="#ebf5fc"] ;
51 -> 85 ;
86 [label="Age <= 32.0\ngini = 0.5\nsamples = 53\nvalue = [27, 26]", fillcolor="#fefaf8"] ;
85 -> 86 ;
87 [label="Fare <= 7.763\ngini = 0.497\nsamples = 50\nvalue = [27, 23]", fillcolor="#fbece2"] ;
86 -> 87 ;
88 [label="Age <= 25.5\ngini = 0.278\nsamples = 6\nvalue = [1, 5]", fillcolor="#61b1ea"] ;
87 -> 88 ;
89 [label="gini = 0.0\nsamples = 5\nvalue = [0, 5]", fillcolor="#399de5"] ;
88 -> 89 ;
90 [label="gini = 0.0\nsamples = 1\nvalue = [1, 0]", fillcolor="#e58139"] ;
88 -> 90 ;
91 [label="Fare <= 10.825\ngini = 0.483\nsamples = 44\nvalue = [26, 18]", fillcolor="#f7d8c2"] ;
87 -> 91 ;
92 [label="Fare <= 10.152\ngini = 0.426\nsamples = 26\nvalue = [18, 8]", fillcolor="#f1b991"] ;
91 -> 92 ;
93 [label="Parch_0 <= 0.5\ngini = 0.454\nsamples = 23\nvalue = [15, 8]", fillcolor="#f3c4a3"] ;
92 -> 93 ;
94 [label="gini = 0.0\nsamples = 1\nvalue = [0, 1]", fillcolor="#399de5"] ;
93 -> 94 ;
95 [label="Fare <= 9.84\ngini = 0.434\nsamples = 22\nvalue = [15, 7]", fillcolor="#f1bc95"] ;
93 -> 95 ;
96 [label="Fare <= 7.988\ngini = 0.408\nsamples = 21\nvalue = [15, 6]", fillcolor="#efb388"] ;
95 -> 96 ;
97 [label="Age <= 18.5\ngini = 0.486\nsamples = 12\nvalue = [7, 5]", fillcolor="#f8dbc6"] ;
96 -> 97 ;
98 [label="gini = 0.0\nsamples = 2\nvalue = [2, 0]", fillcolor="#e58139"] ;
97 -> 98 ;
99 [label="Age <= 22.5\ngini = 0.5\nsamples = 10\nvalue = [5, 5]", fillcolor="#ffffff"] ;
97 -> 99 ;
100 [label="gini = 0.0\nsamples = 2\nvalue = [0, 2]", fillcolor="#399de5"] ;
99 -> 100 ;
101 [label="Age <= 25.5\ngini = 0.469\nsamples = 8\nvalue = [5, 3]", fillcolor="#f5cdb0"] ;
99 -> 101 ;
102 [label="gini = 0.0\nsamples = 3\nvalue = [3, 0]", fillcolor="#e58139"] ;
101 -> 102 ;
103 [label="Age <= 27.5\ngini = 0.48\nsamples = 5\nvalue = [2, 3]", fillcolor="#bddef6"] ;
101 -> 103 ;
104 [label="gini = 0.0\nsamples = 3\nvalue = [0, 3]", fillcolor="#399de5"] ;
103 -> 104 ;
105 [label="gini = 0.0\nsamples = 2\nvalue = [2, 0]", fillcolor="#e58139"] ;
103 -> 105 ;
106 [label="Age <= 30.5\ngini = 0.198\nsamples = 9\nvalue = [8, 1]", fillcolor="#e89152"] ;
96 -> 106 ;
107 [label="gini = 0.0\nsamples = 8\nvalue = [8, 0]", fillcolor="#e58139"] ;
106 -> 107 ;
108 [label="gini = 0.0\nsamples = 1\nvalue = [0, 1]", fillcolor="#399de5"] ;
106 -> 108 ;
109 [label="gini = 0.0\nsamples = 1\nvalue = [0, 1]", fillcolor="#399de5"] ;
95 -> 109 ;
110 [label="gini = 0.0\nsamples = 3\nvalue = [3, 0]", fillcolor="#e58139"] ;
92 -> 110 ;
111 [label="Fare <= 17.25\ngini = 0.494\nsamples = 18\nvalue = [8, 10]", fillcolor="#d7ebfa"] ;
91 -> 111 ;
112 [label="Age <= 25.0\ngini = 0.298\nsamples = 11\nvalue = [2, 9]", fillcolor="#65b3eb"] ;
111 -> 112 ;
113 [label="gini = 0.0\nsamples = 5\nvalue = [0, 5]", fillcolor="#399de5"] ;
112 -> 113 ;
114 [label="Age <= 26.5\ngini = 0.444\nsamples = 6\nvalue = [2, 4]", fillcolor="#9ccef2"] ;
112 -> 114 ;
115 [label="gini = 0.0\nsamples = 1\nvalue = [1, 0]", fillcolor="#e58139"] ;
114 -> 115 ;
116 [label="Parch_1 <= 0.5\ngini = 0.32\nsamples = 5\nvalue = [1, 4]", fillcolor="#6ab6ec"] ;
114 -> 116 ;
117 [label="gini = 0.0\nsamples = 3\nvalue = [0, 3]", fillcolor="#399de5"] ;
116 -> 117 ;
118 [label="Age <= 27.5\ngini = 0.5\nsamples = 2\nvalue = [1, 1]", fillcolor="#ffffff"] ;
116 -> 118 ;
119 [label="gini = 0.0\nsamples = 1\nvalue = [0, 1]", fillcolor="#399de5"] ;
118 -> 119 ;
120 [label="gini = 0.0\nsamples = 1\nvalue = [1, 0]", fillcolor="#e58139"] ;
118 -> 120 ;
121 [label="Age <= 30.0\ngini = 0.245\nsamples = 7\nvalue = [6, 1]", fillcolor="#e9965a"] ;
111 -> 121 ;
122 [label="gini = 0.0\nsamples = 5\nvalue = [5, 0]", fillcolor="#e58139"] ;
121 -> 122 ;
123 [label="Parch_0 <= 0.5\ngini = 0.5\nsamples = 2\nvalue = [1, 1]", fillcolor="#ffffff"] ;
121 -> 123 ;
124 [label="gini = 0.0\nsamples = 1\nvalue = [0, 1]", fillcolor="#399de5"] ;
123 -> 124 ;
125 [label="gini = 0.0\nsamples = 1\nvalue = [1, 0]", fillcolor="#e58139"] ;
123 -> 125 ;
126 [label="gini = 0.0\nsamples = 3\nvalue = [0, 3]", fillcolor="#399de5"] ;
86 -> 126 ;
127 [label="gini = 0.0\nsamples = 4\nvalue = [0, 4]", fillcolor="#399de5"] ;
85 -> 127 ;
128 [label="Age <= 55.0\ngini = 0.245\nsamples = 7\nvalue = [6, 1]", fillcolor="#e9965a"] ;
50 -> 128 ;
129 [label="gini = 0.0\nsamples = 6\nvalue = [6, 0]", fillcolor="#e58139"] ;
128 -> 129 ;
130 [label="gini = 0.0\nsamples = 1\nvalue = [0, 1]", fillcolor="#399de5"] ;
128 -> 130 ;
131 [label="Parch_0 <= 0.5\ngini = 0.198\nsamples = 27\nvalue = [24, 3]", fillcolor="#e89152"] ;
49 -> 131 ;
132 [label="Age <= 5.5\ngini = 0.142\nsamples = 26\nvalue = [24, 2]", fillcolor="#e78c49"] ;
131 -> 132 ;
133 [label="Age <= 3.5\ngini = 0.444\nsamples = 3\nvalue = [2, 1]", fillcolor="#f2c09c"] ;
132 -> 133 ;
134 [label="gini = 0.0\nsamples = 2\nvalue = [2, 0]", fillcolor="#e58139"] ;
133 -> 134 ;
135 [label="gini = 0.0\nsamples = 1\nvalue = [0, 1]", fillcolor="#399de5"] ;
133 -> 135 ;
136 [label="Parch_5 <= 0.5\ngini = 0.083\nsamples = 23\nvalue = [22, 1]", fillcolor="#e68742"] ;
132 -> 136 ;
137 [label="gini = 0.0\nsamples = 19\nvalue = [19, 0]", fillcolor="#e58139"] ;
136 -> 137 ;
138 [label="Age <= 38.5\ngini = 0.375\nsamples = 4\nvalue = [3, 1]", fillcolor="#eeab7b"] ;
136 -> 138 ;
139 [label="gini = 0.0\nsamples = 1\nvalue = [0, 1]", fillcolor="#399de5"] ;
138 -> 139 ;
140 [label="gini = 0.0\nsamples = 3\nvalue = [3, 0]", fillcolor="#e58139"] ;
138 -> 140 ;
141 [label="gini = 0.0\nsamples = 1\nvalue = [0, 1]", fillcolor="#399de5"] ;
131 -> 141 ;
142 [label="Age <= 6.5\ngini = 0.306\nsamples = 577\nvalue = [468, 109]", fillcolor="#eb9e67"] ;
0 -> 142 [labeldistance=2.5, labelangle=-45, headlabel="False"] ;
143 [label="SibSp_4 <= 0.5\ngini = 0.444\nsamples = 24\nvalue = [8, 16]", fillcolor="#9ccef2"] ;
142 -> 143 ;
144 [label="SibSp_3 <= 0.5\ngini = 0.278\nsamples = 18\nvalue = [3, 15]", fillcolor="#61b1ea"] ;
143 -> 144 ;
145 [label="SibSp_5 <= 0.5\ngini = 0.117\nsamples = 16\nvalue = [1, 15]", fillcolor="#46a4e7"] ;
144 -> 145 ;
146 [label="gini = 0.0\nsamples = 15\nvalue = [0, 15]", fillcolor="#399de5"] ;
145 -> 146 ;
147 [label="gini = 0.0\nsamples = 1\nvalue = [1, 0]", fillcolor="#e58139"] ;
145 -> 147 ;
148 [label="gini = 0.0\nsamples = 2\nvalue = [2, 0]", fillcolor="#e58139"] ;
144 -> 148 ;
149 [label="Parch_1 <= 0.5\ngini = 0.278\nsamples = 6\nvalue = [5, 1]", fillcolor="#ea9a61"] ;
143 -> 149 ;
150 [label="Age <= 3.5\ngini = 0.5\nsamples = 2\nvalue = [1, 1]", fillcolor="#ffffff"] ;
149 -> 150 ;
151 [label="gini = 0.0\nsamples = 1\nvalue = [0, 1]", fillcolor="#399de5"] ;
150 -> 151 ;
152 [label="gini = 0.0\nsamples = 1\nvalue = [1, 0]", fillcolor="#e58139"] ;
150 -> 152 ;
153 [label="gini = 0.0\nsamples = 4\nvalue = [4, 0]", fillcolor="#e58139"] ;
149 -> 153 ;
154 [label="PClass_1 <= 0.5\ngini = 0.28\nsamples = 553\nvalue = [460, 93]", fillcolor="#ea9a61"] ;
142 -> 154 ;
155 [label="Fare <= 51.698\ngini = 0.204\nsamples = 433\nvalue = [383, 50]", fillcolor="#e89153"] ;
154 -> 155 ;
156 [label="Age <= 13.0\ngini = 0.193\nsamples = 417\nvalue = [372, 45]", fillcolor="#e89051"] ;
155 -> 156 ;
157 [label="SibSp_1 <= 0.5\ngini = 0.444\nsamples = 12\nvalue = [8, 4]", fillcolor="#f2c09c"] ;
156 -> 157 ;
158 [label="Fare <= 24.212\ngini = 0.198\nsamples = 9\nvalue = [8, 1]", fillcolor="#e89152"] ;
157 -> 158 ;
159 [label="Fare <= 19.656\ngini = 0.5\nsamples = 2\nvalue = [1, 1]", fillcolor="#ffffff"] ;
158 -> 159 ;
160 [label="gini = 0.0\nsamples = 1\nvalue = [1, 0]", fillcolor="#e58139"] ;
159 -> 160 ;
161 [label="gini = 0.0\nsamples = 1\nvalue = [0, 1]", fillcolor="#399de5"] ;
159 -> 161 ;
162 [label="gini = 0.0\nsamples = 7\nvalue = [7, 0]", fillcolor="#e58139"] ;
158 -> 162 ;
163 [label="gini = 0.0\nsamples = 3\nvalue = [0, 3]", fillcolor="#399de5"] ;
157 -> 163 ;
164 [label="Embarked_C <= 0.5\ngini = 0.182\nsamples = 405\nvalue = [364, 41]", fillcolor="#e88f4f"] ;
156 -> 164 ;
165 [label="Fare <= 13.25\ngini = 0.164\nsamples = 356\nvalue = [324, 32]", fillcolor="#e88d4d"] ;
164 -> 165 ;
166 [label="Fare <= 7.91\ngini = 0.188\nsamples = 285\nvalue = [255, 30]", fillcolor="#e89050"] ;
165 -> 166 ;
167 [label="Fare <= 7.865\ngini = 0.129\nsamples = 144\nvalue = [134, 10]", fillcolor="#e78a48"] ;
166 -> 167 ;
168 [label="Age <= 32.5\ngini = 0.165\nsamples = 110\nvalue = [100, 10]", fillcolor="#e88e4d"] ;
167 -> 168 ;
169 [label="Age <= 31.5\ngini = 0.203\nsamples = 87\nvalue = [77, 10]", fillcolor="#e89153"] ;
168 -> 169 ;
170 [label="Age <= 23.5\ngini = 0.189\nsamples = 85\nvalue = [76, 9]", fillcolor="#e89050"] ;
169 -> 170 ;
171 [label="Fare <= 7.785\ngini = 0.067\nsamples = 29\nvalue = [28, 1]", fillcolor="#e68640"] ;
170 -> 171 ;
172 [label="gini = 0.0\nsamples = 20\nvalue = [20, 0]", fillcolor="#e58139"] ;
171 -> 172 ;
173 [label="Fare <= 7.798\ngini = 0.198\nsamples = 9\nvalue = [8, 1]", fillcolor="#e89152"] ;
171 -> 173 ;
174 [label="Age <= 19.5\ngini = 0.444\nsamples = 3\nvalue = [2, 1]", fillcolor="#f2c09c"] ;
173 -> 174 ;
175 [label="gini = 0.0\nsamples = 1\nvalue = [1, 0]", fillcolor="#e58139"] ;
174 -> 175 ;
176 [label="Age <= 21.5\ngini = 0.5\nsamples = 2\nvalue = [1, 1]", fillcolor="#ffffff"] ;
174 -> 176 ;
177 [label="gini = 0.0\nsamples = 1\nvalue = [0, 1]", fillcolor="#399de5"] ;
176 -> 177 ;
178 [label="gini = 0.0\nsamples = 1\nvalue = [1, 0]", fillcolor="#e58139"] ;
176 -> 178 ;
179 [label="gini = 0.0\nsamples = 6\nvalue = [6, 0]", fillcolor="#e58139"] ;
173 -> 179 ;
180 [label="Age <= 27.5\ngini = 0.245\nsamples = 56\nvalue = [48, 8]", fillcolor="#e9965a"] ;
170 -> 180 ;
181 [label="Age <= 26.5\ngini = 0.43\nsamples = 16\nvalue = [11, 5]", fillcolor="#f1ba93"] ;
180 -> 181 ;
182 [label="Fare <= 3.525\ngini = 0.337\nsamples = 14\nvalue = [11, 3]", fillcolor="#eca36f"] ;
181 -> 182 ;
183 [label="gini = 0.0\nsamples = 1\nvalue = [0, 1]", fillcolor="#399de5"] ;
182 -> 183 ;
184 [label="SibSp_1 <= 0.5\ngini = 0.26\nsamples = 13\nvalue = [11, 2]", fillcolor="#ea985d"] ;
182 -> 184 ;
185 [label="Fare <= 7.196\ngini = 0.18\nsamples = 10\nvalue = [9, 1]", fillcolor="#e88f4f"] ;
184 -> 185 ;
186 [label="Fare <= 7.096\ngini = 0.375\nsamples = 4\nvalue = [3, 1]", fillcolor="#eeab7b"] ;
185 -> 186 ;
187 [label="gini = 0.0\nsamples = 3\nvalue = [3, 0]", fillcolor="#e58139"] ;
186 -> 187 ;
188 [label="gini = 0.0\nsamples = 1\nvalue = [0, 1]", fillcolor="#399de5"] ;
186 -> 188 ;
189 [label="gini = 0.0\nsamples = 6\nvalue = [6, 0]", fillcolor="#e58139"] ;
185 -> 189 ;
190 [label="Fare <= 7.815\ngini = 0.444\nsamples = 3\nvalue = [2, 1]", fillcolor="#f2c09c"] ;
184 -> 190 ;
191 [label="gini = 0.5\nsamples = 2\nvalue = [1, 1]", fillcolor="#ffffff"] ;
190 -> 191 ;
192 [label="gini = 0.0\nsamples = 1\nvalue = [1, 0]", fillcolor="#e58139"] ;
190 -> 192 ;
193 [label="gini = 0.0\nsamples = 2\nvalue = [0, 2]", fillcolor="#399de5"] ;
181 -> 193 ;
194 [label="Fare <= 7.744\ngini = 0.139\nsamples = 40\nvalue = [37, 3]", fillcolor="#e78b49"] ;
180 -> 194 ;
195 [label="gini = 0.0\nsamples = 20\nvalue = [20, 0]", fillcolor="#e58139"] ;
194 -> 195 ;
196 [label="Fare <= 7.785\ngini = 0.255\nsamples = 20\nvalue = [17, 3]", fillcolor="#ea975c"] ;
194 -> 196 ;
197 [label="Age <= 30.0\ngini = 0.291\nsamples = 17\nvalue = [14, 3]", fillcolor="#eb9c63"] ;
196 -> 197 ;
198 [label="Age <= 28.5\ngini = 0.32\nsamples = 15\nvalue = [12, 3]", fillcolor="#eca06a"] ;
197 -> 198 ;
199 [label="Fare <= 7.763\ngini = 0.26\nsamples = 13\nvalue = [11, 2]", fillcolor="#ea985d"] ;
198 -> 199 ;
200 [label="SibSp_0 <= 0.5\ngini = 0.165\nsamples = 11\nvalue = [10, 1]", fillcolor="#e88e4d"] ;
199 -> 200 ;
201 [label="gini = 0.0\nsamples = 1\nvalue = [1, 0]", fillcolor="#e58139"] ;
200 -> 201 ;
202 [label="gini = 0.18\nsamples = 10\nvalue = [9, 1]", fillcolor="#e88f4f"] ;
200 -> 202 ;
203 [label="gini = 0.5\nsamples = 2\nvalue = [1, 1]", fillcolor="#ffffff"] ;
199 -> 203 ;
204 [label="Fare <= 7.763\ngini = 0.5\nsamples = 2\nvalue = [1, 1]", fillcolor="#ffffff"] ;
198 -> 204 ;
205 [label="gini = 0.0\nsamples = 1\nvalue = [0, 1]", fillcolor="#399de5"] ;
204 -> 205 ;
206 [label="gini = 0.0\nsamples = 1\nvalue = [1, 0]", fillcolor="#e58139"] ;
204 -> 206 ;
207 [label="gini = 0.0\nsamples = 2\nvalue = [2, 0]", fillcolor="#e58139"] ;
197 -> 207 ;
208 [label="gini = 0.0\nsamples = 3\nvalue = [3, 0]", fillcolor="#e58139"] ;
196 -> 208 ;
209 [label="Embarked_Q <= 0.5\ngini = 0.5\nsamples = 2\nvalue = [1, 1]", fillcolor="#ffffff"] ;
169 -> 209 ;
210 [label="gini = 0.0\nsamples = 1\nvalue = [0, 1]", fillcolor="#399de5"] ;
209 -> 210 ;
211 [label="gini = 0.0\nsamples = 1\nvalue = [1, 0]", fillcolor="#e58139"] ;
209 -> 211 ;
212 [label="gini = 0.0\nsamples = 23\nvalue = [23, 0]", fillcolor="#e58139"] ;
168 -> 212 ;
213 [label="gini = 0.0\nsamples = 34\nvalue = [34, 0]", fillcolor="#e58139"] ;
167 -> 213 ;
214 [label="Fare <= 7.988\ngini = 0.243\nsamples = 141\nvalue = [121, 20]", fillcolor="#e9965a"] ;
166 -> 214 ;
215 [label="Age <= 41.5\ngini = 0.473\nsamples = 13\nvalue = [8, 5]", fillcolor="#f5d0b5"] ;
214 -> 215 ;
216 [label="SibSp_1 <= 0.5\ngini = 0.444\nsamples = 12\nvalue = [8, 4]", fillcolor="#f2c09c"] ;
215 -> 216 ;
217 [label="Age <= 29.5\ngini = 0.397\nsamples = 11\nvalue = [8, 3]", fillcolor="#efb083"] ;
216 -> 217 ;
218 [label="gini = 0.0\nsamples = 4\nvalue = [4, 0]", fillcolor="#e58139"] ;
217 -> 218 ;
219 [label="Age <= 31.5\ngini = 0.49\nsamples = 7\nvalue = [4, 3]", fillcolor="#f8e0ce"] ;
217 -> 219 ;
220 [label="gini = 0.0\nsamples = 1\nvalue = [0, 1]", fillcolor="#399de5"] ;
219 -> 220 ;
221 [label="SibSp_0 <= 0.5\ngini = 0.444\nsamples = 6\nvalue = [4, 2]", fillcolor="#f2c09c"] ;
219 -> 221 ;
222 [label="gini = 0.0\nsamples = 1\nvalue = [1, 0]", fillcolor="#e58139"] ;
221 -> 222 ;
223 [label="Age <= 35.5\ngini = 0.48\nsamples = 5\nvalue = [3, 2]", fillcolor="#f6d5bd"] ;
221 -> 223 ;
224 [label="gini = 0.444\nsamples = 3\nvalue = [2, 1]", fillcolor="#f2c09c"] ;
223 -> 224 ;
225 [label="gini = 0.5\nsamples = 2\nvalue = [1, 1]", fillcolor="#ffffff"] ;
223 -> 225 ;
226 [label="gini = 0.0\nsamples = 1\nvalue = [0, 1]", fillcolor="#399de5"] ;
216 -> 226 ;
227 [label="gini = 0.0\nsamples = 1\nvalue = [0, 1]", fillcolor="#399de5"] ;
215 -> 227 ;
228 [label="Age <= 19.5\ngini = 0.207\nsamples = 128\nvalue = [113, 15]", fillcolor="#e89253"] ;
214 -> 228 ;
229 [label="Fare <= 8.104\ngini = 0.32\nsamples = 20\nvalue = [16, 4]", fillcolor="#eca06a"] ;
228 -> 229 ;
230 [label="Age <= 17.0\ngini = 0.48\nsamples = 5\nvalue = [2, 3]", fillcolor="#bddef6"] ;
229 -> 230 ;
231 [label="gini = 0.5\nsamples = 2\nvalue = [1, 1]", fillcolor="#ffffff"] ;
230 -> 231 ;
232 [label="Age <= 18.5\ngini = 0.444\nsamples = 3\nvalue = [1, 2]", fillcolor="#9ccef2"] ;
230 -> 232 ;
233 [label="gini = 0.0\nsamples = 1\nvalue = [0, 1]", fillcolor="#399de5"] ;
232 -> 233 ;
234 [label="gini = 0.5\nsamples = 2\nvalue = [1, 1]", fillcolor="#ffffff"] ;
232 -> 234 ;
235 [label="Age <= 18.5\ngini = 0.124\nsamples = 15\nvalue = [14, 1]", fillcolor="#e78a47"] ;
229 -> 235 ;
236 [label="gini = 0.0\nsamples = 10\nvalue = [10, 0]", fillcolor="#e58139"] ;
235 -> 236 ;
237 [label="Fare <= 10.335\ngini = 0.32\nsamples = 5\nvalue = [4, 1]", fillcolor="#eca06a"] ;
235 -> 237 ;
238 [label="gini = 0.0\nsamples = 2\nvalue = [2, 0]", fillcolor="#e58139"] ;
237 -> 238 ;
239 [label="Fare <= 11.75\ngini = 0.444\nsamples = 3\nvalue = [2, 1]", fillcolor="#f2c09c"] ;
237 -> 239 ;
240 [label="gini = 0.5\nsamples = 2\nvalue = [1, 1]", fillcolor="#ffffff"] ;
239 -> 240 ;
241 [label="gini = 0.0\nsamples = 1\nvalue = [1, 0]", fillcolor="#e58139"] ;
239 -> 241 ;
242 [label="Age <= 26.5\ngini = 0.183\nsamples = 108\nvalue = [97, 11]", fillcolor="#e88f4f"] ;
228 -> 242 ;
243 [label="gini = 0.0\nsamples = 31\nvalue = [31, 0]", fillcolor="#e58139"] ;
242 -> 243 ;
244 [label="Fare <= 8.081\ngini = 0.245\nsamples = 77\nvalue = [66, 11]", fillcolor="#e9965a"] ;
242 -> 244 ;
245 [label="Age <= 31.25\ngini = 0.133\nsamples = 28\nvalue = [26, 2]", fillcolor="#e78b48"] ;
244 -> 245 ;
246 [label="gini = 0.0\nsamples = 16\nvalue = [16, 0]", fillcolor="#e58139"] ;
245 -> 246 ;
247 [label="Age <= 33.0\ngini = 0.278\nsamples = 12\nvalue = [10, 2]", fillcolor="#ea9a61"] ;
245 -> 247 ;
248 [label="gini = 0.0\nsamples = 1\nvalue = [0, 1]", fillcolor="#399de5"] ;
247 -> 248 ;
249 [label="Age <= 44.5\ngini = 0.165\nsamples = 11\nvalue = [10, 1]", fillcolor="#e88e4d"] ;
247 -> 249 ;
250 [label="gini = 0.0\nsamples = 7\nvalue = [7, 0]", fillcolor="#e58139"] ;
249 -> 250 ;
251 [label="Age <= 47.5\ngini = 0.375\nsamples = 4\nvalue = [3, 1]", fillcolor="#eeab7b"] ;
249 -> 251 ;
252 [label="gini = 0.0\nsamples = 1\nvalue = [0, 1]", fillcolor="#399de5"] ;
251 -> 252 ;
253 [label="gini = 0.0\nsamples = 3\nvalue = [3, 0]", fillcolor="#e58139"] ;
251 -> 253 ;
254 [label="Fare <= 8.238\ngini = 0.3\nsamples = 49\nvalue = [40, 9]", fillcolor="#eb9d66"] ;
244 -> 254 ;
255 [label="gini = 0.0\nsamples = 1\nvalue = [0, 1]", fillcolor="#399de5"] ;
254 -> 255 ;
256 [label="Age <= 31.5\ngini = 0.278\nsamples = 48\nvalue = [40, 8]", fillcolor="#ea9a61"] ;
254 -> 256 ;
257 [label="Age <= 30.5\ngini = 0.363\nsamples = 21\nvalue = [16, 5]", fillcolor="#eda877"] ;
256 -> 257 ;
258 [label="PClass_3 <= 0.5\ngini = 0.332\nsamples = 19\nvalue = [15, 4]", fillcolor="#eca36e"] ;
257 -> 258 ;
259 [label="Age <= 28.5\ngini = 0.18\nsamples = 10\nvalue = [9, 1]", fillcolor="#e88f4f"] ;
258 -> 259 ;
260 [label="Age <= 27.5\ngini = 0.32\nsamples = 5\nvalue = [4, 1]", fillcolor="#eca06a"] ;
259 -> 260 ;
261 [label="gini = 0.0\nsamples = 2\nvalue = [2, 0]", fillcolor="#e58139"] ;
260 -> 261 ;
262 [label="Fare <= 11.75\ngini = 0.444\nsamples = 3\nvalue = [2, 1]", fillcolor="#f2c09c"] ;
260 -> 262 ;
263 [label="gini = 0.0\nsamples = 1\nvalue = [1, 0]", fillcolor="#e58139"] ;
262 -> 263 ;
264 [label="gini = 0.5\nsamples = 2\nvalue = [1, 1]", fillcolor="#ffffff"] ;
262 -> 264 ;
265 [label="gini = 0.0\nsamples = 5\nvalue = [5, 0]", fillcolor="#e58139"] ;
259 -> 265 ;
266 [label="Age <= 27.5\ngini = 0.444\nsamples = 9\nvalue = [6, 3]", fillcolor="#f2c09c"] ;
258 -> 266 ;
267 [label="gini = 0.0\nsamples = 1\nvalue = [0, 1]", fillcolor="#399de5"] ;
266 -> 267 ;
268 [label="Age <= 28.5\ngini = 0.375\nsamples = 8\nvalue = [6, 2]", fillcolor="#eeab7b"] ;
266 -> 268 ;
269 [label="gini = 0.0\nsamples = 5\nvalue = [5, 0]", fillcolor="#e58139"] ;
268 -> 269 ;
270 [label="Fare <= 9.492\ngini = 0.444\nsamples = 3\nvalue = [1, 2]", fillcolor="#9ccef2"] ;
268 -> 270 ;
271 [label="gini = 0.0\nsamples = 1\nvalue = [1, 0]", fillcolor="#e58139"] ;
270 -> 271 ;
272 [label="gini = 0.0\nsamples = 2\nvalue = [0, 2]", fillcolor="#399de5"] ;
270 -> 272 ;
273 [label="Fare <= 11.75\ngini = 0.5\nsamples = 2\nvalue = [1, 1]", fillcolor="#ffffff"] ;
257 -> 273 ;
274 [label="gini = 0.0\nsamples = 1\nvalue = [1, 0]", fillcolor="#e58139"] ;
273 -> 274 ;
275 [label="gini = 0.0\nsamples = 1\nvalue = [0, 1]", fillcolor="#399de5"] ;
273 -> 275 ;
276 [label="Age <= 59.5\ngini = 0.198\nsamples = 27\nvalue = [24, 3]", fillcolor="#e89152"] ;
256 -> 276 ;
277 [label="Fare <= 12.762\ngini = 0.153\nsamples = 24\nvalue = [22, 2]", fillcolor="#e78c4b"] ;
276 -> 277 ;
278 [label="gini = 0.0\nsamples = 13\nvalue = [13, 0]", fillcolor="#e58139"] ;
277 -> 278 ;
279 [label="Age <= 45.0\ngini = 0.298\nsamples = 11\nvalue = [9, 2]", fillcolor="#eb9d65"] ;
277 -> 279 ;
280 [label="Age <= 40.5\ngini = 0.375\nsamples = 8\nvalue = [6, 2]", fillcolor="#eeab7b"] ;
279 -> 280 ;
281 [label="Age <= 35.0\ngini = 0.278\nsamples = 6\nvalue = [5, 1]", fillcolor="#ea9a61"] ;
280 -> 281 ;
282 [label="gini = 0.444\nsamples = 3\nvalue = [2, 1]", fillcolor="#f2c09c"] ;
281 -> 282 ;
283 [label="gini = 0.0\nsamples = 3\nvalue = [3, 0]", fillcolor="#e58139"] ;
281 -> 283 ;
284 [label="gini = 0.5\nsamples = 2\nvalue = [1, 1]", fillcolor="#ffffff"] ;
280 -> 284 ;
285 [label="gini = 0.0\nsamples = 3\nvalue = [3, 0]", fillcolor="#e58139"] ;
279 -> 285 ;
286 [label="Age <= 64.0\ngini = 0.444\nsamples = 3\nvalue = [2, 1]", fillcolor="#f2c09c"] ;
276 -> 286 ;
287 [label="gini = 0.0\nsamples = 1\nvalue = [0, 1]", fillcolor="#399de5"] ;
286 -> 287 ;
288 [label="gini = 0.0\nsamples = 2\nvalue = [2, 0]", fillcolor="#e58139"] ;
286 -> 288 ;
289 [label="SibSp_2 <= 0.5\ngini = 0.055\nsamples = 71\nvalue = [69, 2]", fillcolor="#e6853f"] ;
165 -> 289 ;
290 [label="Fare <= 25.733\ngini = 0.029\nsamples = 67\nvalue = [66, 1]", fillcolor="#e5833c"] ;
289 -> 290 ;
291 [label="gini = 0.0\nsamples = 41\nvalue = [41, 0]", fillcolor="#e58139"] ;
290 -> 291 ;
292 [label="Age <= 33.0\ngini = 0.074\nsamples = 26\nvalue = [25, 1]", fillcolor="#e68641"] ;
290 -> 292 ;
293 [label="Age <= 31.5\ngini = 0.165\nsamples = 11\nvalue = [10, 1]", fillcolor="#e88e4d"] ;
292 -> 293 ;
294 [label="gini = 0.0\nsamples = 10\nvalue = [10, 0]", fillcolor="#e58139"] ;
293 -> 294 ;
295 [label="gini = 0.0\nsamples = 1\nvalue = [0, 1]", fillcolor="#399de5"] ;
293 -> 295 ;
296 [label="gini = 0.0\nsamples = 15\nvalue = [15, 0]", fillcolor="#e58139"] ;
292 -> 296 ;
297 [label="Embarked_Q <= 0.5\ngini = 0.375\nsamples = 4\nvalue = [3, 1]", fillcolor="#eeab7b"] ;
289 -> 297 ;
298 [label="gini = 0.0\nsamples = 3\nvalue = [3, 0]", fillcolor="#e58139"] ;
297 -> 298 ;
299 [label="gini = 0.0\nsamples = 1\nvalue = [0, 1]", fillcolor="#399de5"] ;
297 -> 299 ;
300 [label="Parch_1 <= 0.5\ngini = 0.3\nsamples = 49\nvalue = [40, 9]", fillcolor="#eb9d66"] ;
164 -> 300 ;
301 [label="Age <= 22.5\ngini = 0.24\nsamples = 43\nvalue = [37, 6]", fillcolor="#e99559"] ;
300 -> 301 ;
302 [label="Fare <= 5.619\ngini = 0.5\nsamples = 4\nvalue = [2, 2]", fillcolor="#ffffff"] ;
301 -> 302 ;
303 [label="gini = 0.0\nsamples = 1\nvalue = [1, 0]", fillcolor="#e58139"] ;
302 -> 303 ;
304 [label="Age <= 21.0\ngini = 0.444\nsamples = 3\nvalue = [1, 2]", fillcolor="#9ccef2"] ;
302 -> 304 ;
305 [label="gini = 0.0\nsamples = 1\nvalue = [0, 1]", fillcolor="#399de5"] ;
304 -> 305 ;
306 [label="Fare <= 7.227\ngini = 0.5\nsamples = 2\nvalue = [1, 1]", fillcolor="#ffffff"] ;
304 -> 306 ;
307 [label="gini = 0.0\nsamples = 1\nvalue = [0, 1]", fillcolor="#399de5"] ;
306 -> 307 ;
308 [label="gini = 0.0\nsamples = 1\nvalue = [1, 0]", fillcolor="#e58139"] ;
306 -> 308 ;
309 [label="Age <= 29.5\ngini = 0.184\nsamples = 39\nvalue = [35, 4]", fillcolor="#e88f50"] ;
301 -> 309 ;
310 [label="Age <= 28.75\ngini = 0.245\nsamples = 28\nvalue = [24, 4]", fillcolor="#e9965a"] ;
309 -> 310 ;
311 [label="Fare <= 16.919\ngini = 0.204\nsamples = 26\nvalue = [23, 3]", fillcolor="#e89153"] ;
310 -> 311 ;
312 [label="PClass_3 <= 0.5\ngini = 0.159\nsamples = 23\nvalue = [21, 2]", fillcolor="#e78d4c"] ;
311 -> 312 ;
313 [label="Fare <= 14.454\ngini = 0.444\nsamples = 3\nvalue = [2, 1]", fillcolor="#f2c09c"] ;
312 -> 313 ;
314 [label="gini = 0.0\nsamples = 1\nvalue = [0, 1]", fillcolor="#399de5"] ;
313 -> 314 ;
315 [label="gini = 0.0\nsamples = 2\nvalue = [2, 0]", fillcolor="#e58139"] ;
313 -> 315 ;
316 [label="Fare <= 7.227\ngini = 0.095\nsamples = 20\nvalue = [19, 1]", fillcolor="#e68843"] ;
312 -> 316 ;
317 [label="gini = 0.0\nsamples = 6\nvalue = [6, 0]", fillcolor="#e58139"] ;
316 -> 317 ;
318 [label="Fare <= 7.562\ngini = 0.133\nsamples = 14\nvalue = [13, 1]", fillcolor="#e78b48"] ;
316 -> 318 ;
319 [label="Age <= 25.75\ngini = 0.219\nsamples = 8\nvalue = [7, 1]", fillcolor="#e99355"] ;
318 -> 319 ;
320 [label="gini = 0.0\nsamples = 1\nvalue = [1, 0]", fillcolor="#e58139"] ;
319 -> 320 ;
321 [label="Age <= 28.25\ngini = 0.245\nsamples = 7\nvalue = [6, 1]", fillcolor="#e9965a"] ;
319 -> 321 ;
322 [label="gini = 0.278\nsamples = 6\nvalue = [5, 1]", fillcolor="#ea9a61"] ;
321 -> 322 ;
323 [label="gini = 0.0\nsamples = 1\nvalue = [1, 0]", fillcolor="#e58139"] ;
321 -> 323 ;
324 [label="gini = 0.0\nsamples = 6\nvalue = [6, 0]", fillcolor="#e58139"] ;
318 -> 324 ;
325 [label="Fare <= 20.233\ngini = 0.444\nsamples = 3\nvalue = [2, 1]", fillcolor="#f2c09c"] ;
311 -> 325 ;
326 [label="gini = 0.0\nsamples = 1\nvalue = [0, 1]", fillcolor="#399de5"] ;
325 -> 326 ;
327 [label="gini = 0.0\nsamples = 2\nvalue = [2, 0]", fillcolor="#e58139"] ;
325 -> 327 ;
328 [label="SibSp_0 <= 0.5\ngini = 0.5\nsamples = 2\nvalue = [1, 1]", fillcolor="#ffffff"] ;
310 -> 328 ;
329 [label="gini = 0.0\nsamples = 1\nvalue = [1, 0]", fillcolor="#e58139"] ;
328 -> 329 ;
330 [label="gini = 0.0\nsamples = 1\nvalue = [0, 1]", fillcolor="#399de5"] ;
328 -> 330 ;
331 [label="gini = 0.0\nsamples = 11\nvalue = [11, 0]", fillcolor="#e58139"] ;
309 -> 331 ;
332 [label="Fare <= 11.237\ngini = 0.5\nsamples = 6\nvalue = [3, 3]", fillcolor="#ffffff"] ;
300 -> 332 ;
333 [label="gini = 0.0\nsamples = 2\nvalue = [2, 0]", fillcolor="#e58139"] ;
332 -> 333 ;
334 [label="PClass_3 <= 0.5\ngini = 0.375\nsamples = 4\nvalue = [1, 3]", fillcolor="#7bbeee"] ;
332 -> 334 ;
335 [label="gini = 0.0\nsamples = 1\nvalue = [1, 0]", fillcolor="#e58139"] ;
334 -> 335 ;
336 [label="gini = 0.0\nsamples = 3\nvalue = [0, 3]", fillcolor="#399de5"] ;
334 -> 336 ;
337 [label="Fare <= 63.023\ngini = 0.43\nsamples = 16\nvalue = [11, 5]", fillcolor="#f1ba93"] ;
155 -> 337 ;
338 [label="Age <= 30.0\ngini = 0.408\nsamples = 7\nvalue = [2, 5]", fillcolor="#88c4ef"] ;
337 -> 338 ;
339 [label="Age <= 27.0\ngini = 0.48\nsamples = 5\nvalue = [2, 3]", fillcolor="#bddef6"] ;
338 -> 339 ;
340 [label="gini = 0.0\nsamples = 1\nvalue = [0, 1]", fillcolor="#399de5"] ;
339 -> 340 ;
341 [label="gini = 0.5\nsamples = 4\nvalue = [2, 2]", fillcolor="#ffffff"] ;
339 -> 341 ;
342 [label="gini = 0.0\nsamples = 2\nvalue = [0, 2]", fillcolor="#399de5"] ;
338 -> 342 ;
343 [label="gini = 0.0\nsamples = 9\nvalue = [9, 0]", fillcolor="#e58139"] ;
337 -> 343 ;
344 [label="Fare <= 26.144\ngini = 0.46\nsamples = 120\nvalue = [77, 43]", fillcolor="#f4c7a8"] ;
154 -> 344 ;
345 [label="gini = 0.0\nsamples = 10\nvalue = [10, 0]", fillcolor="#e58139"] ;
344 -> 345 ;
346 [label="Age <= 53.0\ngini = 0.476\nsamples = 110\nvalue = [67, 43]", fillcolor="#f6d2b8"] ;
344 -> 346 ;
347 [label="Fare <= 27.135\ngini = 0.495\nsamples = 89\nvalue = [49, 40]", fillcolor="#fae8db"] ;
346 -> 347 ;
348 [label="Fare <= 26.469\ngini = 0.26\nsamples = 13\nvalue = [2, 11]", fillcolor="#5dafea"] ;
347 -> 348 ;
349 [label="gini = 0.0\nsamples = 4\nvalue = [0, 4]", fillcolor="#399de5"] ;
348 -> 349 ;
350 [label="Age <= 46.5\ngini = 0.346\nsamples = 9\nvalue = [2, 7]", fillcolor="#72b9ec"] ;
348 -> 350 ;
351 [label="Age <= 40.0\ngini = 0.408\nsamples = 7\nvalue = [2, 5]", fillcolor="#88c4ef"] ;
350 -> 351 ;
352 [label="Age <= 31.0\ngini = 0.32\nsamples = 5\nvalue = [1, 4]", fillcolor="#6ab6ec"] ;
351 -> 352 ;
353 [label="gini = 0.444\nsamples = 3\nvalue = [1, 2]", fillcolor="#9ccef2"] ;
352 -> 353 ;
354 [label="gini = 0.0\nsamples = 2\nvalue = [0, 2]", fillcolor="#399de5"] ;
352 -> 354 ;
355 [label="gini = 0.5\nsamples = 2\nvalue = [1, 1]", fillcolor="#ffffff"] ;
351 -> 355 ;
356 [label="gini = 0.0\nsamples = 2\nvalue = [0, 2]", fillcolor="#399de5"] ;
350 -> 356 ;
357 [label="Age <= 17.5\ngini = 0.472\nsamples = 76\nvalue = [47, 29]", fillcolor="#f5cfb3"] ;
347 -> 357 ;
358 [label="gini = 0.0\nsamples = 2\nvalue = [0, 2]", fillcolor="#399de5"] ;
357 -> 358 ;
359 [label="Fare <= 387.665\ngini = 0.463\nsamples = 74\nvalue = [47, 27]", fillcolor="#f4c9ab"] ;
357 -> 359 ;
360 [label="Fare <= 134.642\ngini = 0.453\nsamples = 72\nvalue = [47, 25]", fillcolor="#f3c4a2"] ;
359 -> 360 ;
361 [label="Age <= 27.5\ngini = 0.473\nsamples = 65\nvalue = [40, 25]", fillcolor="#f5d0b5"] ;
360 -> 361 ;
362 [label="Age <= 24.5\ngini = 0.463\nsamples = 11\nvalue = [4, 7]", fillcolor="#aad5f4"] ;
361 -> 362 ;
363 [label="Fare <= 70.323\ngini = 0.32\nsamples = 5\nvalue = [4, 1]", fillcolor="#eca06a"] ;
362 -> 363 ;
364 [label="Parch_0 <= 0.5\ngini = 0.5\nsamples = 2\nvalue = [1, 1]", fillcolor="#ffffff"] ;
363 -> 364 ;
365 [label="gini = 0.0\nsamples = 1\nvalue = [0, 1]", fillcolor="#399de5"] ;
364 -> 365 ;
366 [label="gini = 0.0\nsamples = 1\nvalue = [1, 0]", fillcolor="#e58139"] ;
364 -> 366 ;
367 [label="gini = 0.0\nsamples = 3\nvalue = [3, 0]", fillcolor="#e58139"] ;
363 -> 367 ;
368 [label="gini = 0.0\nsamples = 6\nvalue = [0, 6]", fillcolor="#399de5"] ;
362 -> 368 ;
369 [label="Fare <= 115.442\ngini = 0.444\nsamples = 54\nvalue = [36, 18]", fillcolor="#f2c09c"] ;
361 -> 369 ;
370 [label="Fare <= 29.1\ngini = 0.426\nsamples = 52\nvalue = [36, 16]", fillcolor="#f1b991"] ;
369 -> 370 ;
371 [label="gini = 0.0\nsamples = 5\nvalue = [5, 0]", fillcolor="#e58139"] ;
370 -> 371 ;
372 [label="Fare <= 30.598\ngini = 0.449\nsamples = 47\nvalue = [31, 16]", fillcolor="#f2c29f"] ;
370 -> 372 ;
373 [label="Parch_0 <= 0.5\ngini = 0.408\nsamples = 7\nvalue = [2, 5]", fillcolor="#88c4ef"] ;
372 -> 373 ;
374 [label="gini = 0.0\nsamples = 1\nvalue = [1, 0]", fillcolor="#e58139"] ;
373 -> 374 ;
375 [label="Fare <= 30.25\ngini = 0.278\nsamples = 6\nvalue = [1, 5]", fillcolor="#61b1ea"] ;
373 -> 375 ;
376 [label="Age <= 28.5\ngini = 0.444\nsamples = 3\nvalue = [1, 2]", fillcolor="#9ccef2"] ;
375 -> 376 ;
377 [label="gini = 0.0\nsamples = 2\nvalue = [0, 2]", fillcolor="#399de5"] ;
376 -> 377 ;
378 [label="gini = 0.0\nsamples = 1\nvalue = [1, 0]", fillcolor="#e58139"] ;
376 -> 378 ;
379 [label="gini = 0.0\nsamples = 3\nvalue = [0, 3]", fillcolor="#399de5"] ;
375 -> 379 ;
380 [label="SibSp_1 <= 0.5\ngini = 0.399\nsamples = 40\nvalue = [29, 11]", fillcolor="#efb184"] ;
372 -> 380 ;
381 [label="Fare <= 37.0\ngini = 0.255\nsamples = 20\nvalue = [17, 3]", fillcolor="#ea975c"] ;
380 -> 381 ;
382 [label="Fare <= 35.25\ngini = 0.469\nsamples = 8\nvalue = [5, 3]", fillcolor="#f5cdb0"] ;
381 -> 382 ;
383 [label="Embarked_S <= 0.5\ngini = 0.32\nsamples = 5\nvalue = [4, 1]", fillcolor="#eca06a"] ;
382 -> 383 ;
384 [label="Fare <= 30.848\ngini = 0.5\nsamples = 2\nvalue = [1, 1]", fillcolor="#ffffff"] ;
383 -> 384 ;
385 [label="gini = 0.0\nsamples = 1\nvalue = [1, 0]", fillcolor="#e58139"] ;
384 -> 385 ;
386 [label="gini = 0.0\nsamples = 1\nvalue = [0, 1]", fillcolor="#399de5"] ;
384 -> 386 ;
387 [label="gini = 0.0\nsamples = 3\nvalue = [3, 0]", fillcolor="#e58139"] ;
383 -> 387 ;
388 [label="Age <= 36.5\ngini = 0.444\nsamples = 3\nvalue = [1, 2]", fillcolor="#9ccef2"] ;
382 -> 388 ;
389 [label="gini = 0.0\nsamples = 2\nvalue = [0, 2]", fillcolor="#399de5"] ;
388 -> 389 ;
390 [label="gini = 0.0\nsamples = 1\nvalue = [1, 0]", fillcolor="#e58139"] ;
388 -> 390 ;
391 [label="gini = 0.0\nsamples = 12\nvalue = [12, 0]", fillcolor="#e58139"] ;
381 -> 391 ;
392 [label="Age <= 49.5\ngini = 0.48\nsamples = 20\nvalue = [12, 8]", fillcolor="#f6d5bd"] ;
380 -> 392 ;
393 [label="Age <= 47.0\ngini = 0.498\nsamples = 17\nvalue = [9, 8]", fillcolor="#fcf1e9"] ;
392 -> 393 ;
394 [label="Parch_0 <= 0.5\ngini = 0.444\nsamples = 12\nvalue = [8, 4]", fillcolor="#f2c09c"] ;
393 -> 394 ;
395 [label="gini = 0.0\nsamples = 1\nvalue = [0, 1]", fillcolor="#399de5"] ;
394 -> 395 ;
396 [label="Fare <= 86.737\ngini = 0.397\nsamples = 11\nvalue = [8, 3]", fillcolor="#efb083"] ;
394 -> 396 ;
397 [label="Fare <= 59.087\ngini = 0.32\nsamples = 10\nvalue = [8, 2]", fillcolor="#eca06a"] ;
396 -> 397 ;
398 [label="Fare <= 52.277\ngini = 0.48\nsamples = 5\nvalue = [3, 2]", fillcolor="#f6d5bd"] ;
397 -> 398 ;
399 [label="gini = 0.0\nsamples = 2\nvalue = [2, 0]", fillcolor="#e58139"] ;
398 -> 399 ;
400 [label="Age <= 34.0\ngini = 0.444\nsamples = 3\nvalue = [1, 2]", fillcolor="#9ccef2"] ;
398 -> 400 ;
401 [label="gini = 0.0\nsamples = 1\nvalue = [0, 1]", fillcolor="#399de5"] ;
400 -> 401 ;
402 [label="Fare <= 52.827\ngini = 0.5\nsamples = 2\nvalue = [1, 1]", fillcolor="#ffffff"] ;
400 -> 402 ;
403 [label="gini = 0.0\nsamples = 1\nvalue = [0, 1]", fillcolor="#399de5"] ;
402 -> 403 ;
404 [label="gini = 0.0\nsamples = 1\nvalue = [1, 0]", fillcolor="#e58139"] ;
402 -> 404 ;
405 [label="gini = 0.0\nsamples = 5\nvalue = [5, 0]", fillcolor="#e58139"] ;
397 -> 405 ;
406 [label="gini = 0.0\nsamples = 1\nvalue = [0, 1]", fillcolor="#399de5"] ;
396 -> 406 ;
407 [label="Parch_1 <= 0.5\ngini = 0.32\nsamples = 5\nvalue = [1, 4]", fillcolor="#6ab6ec"] ;
393 -> 407 ;
408 [label="gini = 0.0\nsamples = 4\nvalue = [0, 4]", fillcolor="#399de5"] ;
407 -> 408 ;
409 [label="gini = 0.0\nsamples = 1\nvalue = [1, 0]", fillcolor="#e58139"] ;
407 -> 409 ;
410 [label="gini = 0.0\nsamples = 3\nvalue = [3, 0]", fillcolor="#e58139"] ;
392 -> 410 ;
411 [label="gini = 0.0\nsamples = 2\nvalue = [0, 2]", fillcolor="#399de5"] ;
369 -> 411 ;
412 [label="gini = 0.0\nsamples = 7\nvalue = [7, 0]", fillcolor="#e58139"] ;
360 -> 412 ;
413 [label="gini = 0.0\nsamples = 2\nvalue = [0, 2]", fillcolor="#399de5"] ;
359 -> 413 ;
414 [label="Age <= 75.5\ngini = 0.245\nsamples = 21\nvalue = [18, 3]", fillcolor="#e9965a"] ;
346 -> 414 ;
415 [label="Embarked_C <= 0.5\ngini = 0.18\nsamples = 20\nvalue = [18, 2]", fillcolor="#e88f4f"] ;
414 -> 415 ;
416 [label="gini = 0.0\nsamples = 12\nvalue = [12, 0]", fillcolor="#e58139"] ;
415 -> 416 ;
417 [label="SibSp_1 <= 0.5\ngini = 0.375\nsamples = 8\nvalue = [6, 2]", fillcolor="#eeab7b"] ;
415 -> 417 ;
418 [label="Age <= 57.0\ngini = 0.245\nsamples = 7\nvalue = [6, 1]", fillcolor="#e9965a"] ;
417 -> 418 ;
419 [label="Fare <= 33.098\ngini = 0.5\nsamples = 2\nvalue = [1, 1]", fillcolor="#ffffff"] ;
418 -> 419 ;
420 [label="gini = 0.0\nsamples = 1\nvalue = [1, 0]", fillcolor="#e58139"] ;
419 -> 420 ;
421 [label="gini = 0.0\nsamples = 1\nvalue = [0, 1]", fillcolor="#399de5"] ;
419 -> 421 ;
422 [label="gini = 0.0\nsamples = 5\nvalue = [5, 0]", fillcolor="#e58139"] ;
418 -> 422 ;
423 [label="gini = 0.0\nsamples = 1\nvalue = [0, 1]", fillcolor="#399de5"] ;
417 -> 423 ;
424 [label="gini = 0.0\nsamples = 1\nvalue = [0, 1]", fillcolor="#399de5"] ;
414 -> 424 ;
}